digraph Tree {
node [shape=box] ;
0 [label="recipe <= 0.5\ngini = 0.4996\nsamples = 7395\nvalue = [3599, 3796]"] ;
1 [label="image_ratio <= 0.3788\ngini = 0.4961\nsamples = 6461\nvalue = [3517, 2944]"] ;
0 -> 1 [labeldistance=2.5, labelangle=45, headlabel="True"] ;
2 [label="html_ratio <= 0.2706\ngini = 0.4995\nsamples = 5422\nvalue = [2799, 2623]"] ;
1 -> 2 ;
3 [label="html_ratio <= 0.1588\ngini = 0.5\nsamples = 4235\nvalue = [2123, 2112]"] ;
2 -> 3 ;
4 [label="image_ratio <= 0.2565\ngini = 0.4461\nsamples = 134\nvalue = [89, 45]"] ;
3 -> 4 ;
5 [label="gini = 0.42\nsamples = 110\nvalue = [77, 33]"] ;
4 -> 5 ;
6 [label="gini = 0.5\nsamples = 24\nvalue = [12, 12]"] ;
4 -> 6 ;
7 [label="html_ratio <= 0.2015\ngini = 0.5\nsamples = 4101\nvalue = [2034, 2067]"] ;
3 -> 7 ;
8 [label="gini = 0.4896\nsamples = 881\nvalue = [377, 504]"] ;
7 -> 8 ;
9 [label="gini = 0.4996\nsamples = 3220\nvalue = [1657, 1563]"] ;
7 -> 9 ;
10 [label="image_ratio <= 0.095\ngini = 0.4903\nsamples = 1187\nvalue = [676, 511]"] ;
2 -> 10 ;
11 [label="html_ratio <= 0.307\ngini = 0.4949\nsamples = 1019\nvalue = [561, 458]"] ;
10 -> 11 ;
12 [label="gini = 0.4989\nsamples = 640\nvalue = [335, 305]"] ;
11 -> 12 ;
13 [label="gini = 0.4815\nsamples = 379\nvalue = [226, 153]"] ;
11 -> 13 ;
14 [label="image_ratio <= 0.1826\ngini = 0.4319\nsamples = 168\nvalue = [115, 53]"] ;
10 -> 14 ;
15 [label="gini = 0.3386\nsamples = 88\nvalue = [69, 19]"] ;
14 -> 15 ;
16 [label="gini = 0.4888\nsamples = 80\nvalue = [46, 34]"] ;
14 -> 16 ;
17 [label="html_ratio <= 0.2073\ngini = 0.427\nsamples = 1039\nvalue = [718, 321]"] ;
1 -> 17 ;
18 [label="image_ratio <= 0.4872\ngini = 0.4681\nsamples = 594\nvalue = [372, 222]"] ;
17 -> 18 ;
19 [label="html_ratio <= 0.1471\ngini = 0.4992\nsamples = 100\nvalue = [48, 52]"] ;
18 -> 19 ;
20 [label="gini = 0.2604\nsamples = 13\nvalue = [11, 2]"] ;
19 -> 20 ;
21 [label="gini = 0.4888\nsamples = 87\nvalue = [37, 50]"] ;
19 -> 21 ;
22 [label="html_ratio <= 0.2068\ngini = 0.4514\nsamples = 494\nvalue = [324, 170]"] ;
18 -> 22 ;
23 [label="gini = 0.448\nsamples = 487\nvalue = [322, 165]"] ;
22 -> 23 ;
24 [label="gini = 0.4082\nsamples = 7\nvalue = [2, 5]"] ;
22 -> 24 ;
25 [label="image_ratio <= 1.2679\ngini = 0.346\nsamples = 445\nvalue = [346, 99]"] ;
17 -> 25 ;
26 [label="image_ratio <= 1.1319\ngini = 0.3709\nsamples = 370\nvalue = [279, 91]"] ;
25 -> 26 ;
27 [label="gini = 0.359\nsamples = 354\nvalue = [271, 83]"] ;
26 -> 27 ;
28 [label="gini = 0.5\nsamples = 16\nvalue = [8, 8]"] ;
26 -> 28 ;
29 [label="html_ratio <= 0.2538\ngini = 0.1906\nsamples = 75\nvalue = [67, 8]"] ;
25 -> 29 ;
30 [label="gini = 0.1284\nsamples = 58\nvalue = [54, 4]"] ;
29 -> 30 ;
31 [label="gini = 0.3599\nsamples = 17\nvalue = [13, 4]"] ;
29 -> 31 ;
32 [label="html_ratio <= 0.2918\ngini = 0.1602\nsamples = 934\nvalue = [82, 852]"] ;
0 -> 32 [labeldistance=2.5, labelangle=-45, headlabel="False"] ;
33 [label="html_ratio <= 0.1944\ngini = 0.145\nsamples = 877\nvalue = [69, 808]"] ;
32 -> 33 ;
34 [label="image_ratio <= 0.0228\ngini = 0.0659\nsamples = 264\nvalue = [9, 255]"] ;
33 -> 34 ;
35 [label="gini = 0.2975\nsamples = 11\nvalue = [2, 9]"] ;
34 -> 35 ;
36 [label="image_ratio <= 0.8231\ngini = 0.0538\nsamples = 253\nvalue = [7, 246]"] ;
34 -> 36 ;
37 [label="gini = 0.0768\nsamples = 175\nvalue = [7, 168]"] ;
36 -> 37 ;
38 [label="gini = 0.0\nsamples = 78\nvalue = [0, 78]"] ;
36 -> 38 ;
39 [label="image_ratio <= 0.2193\ngini = 0.1766\nsamples = 613\nvalue = [60, 553]"] ;
33 -> 39 ;
40 [label="image_ratio <= 0.0208\ngini = 0.1472\nsamples = 450\nvalue = [36, 414]"] ;
39 -> 40 ;
41 [label="gini = 0.2449\nsamples = 49\nvalue = [7, 42]"] ;
40 -> 41 ;
42 [label="gini = 0.1342\nsamples = 401\nvalue = [29, 372]"] ;
40 -> 42 ;
43 [label="image_ratio <= 0.3358\ngini = 0.2511\nsamples = 163\nvalue = [24, 139]"] ;
39 -> 43 ;
44 [label="gini = 0.3403\nsamples = 69\nvalue = [15, 54]"] ;
43 -> 44 ;
45 [label="gini = 0.1732\nsamples = 94\nvalue = [9, 85]"] ;
43 -> 45 ;
46 [label="image_ratio <= 0.1695\ngini = 0.3521\nsamples = 57\nvalue = [13, 44]"] ;
32 -> 46 ;
47 [label="image_ratio <= 0.024\ngini = 0.2907\nsamples = 51\nvalue = [9, 42]"] ;
46 -> 47 ;
48 [label="image_ratio <= 0.0161\ngini = 0.375\nsamples = 24\nvalue = [6, 18]"] ;
47 -> 48 ;
49 [label="gini = 0.3047\nsamples = 16\nvalue = [3, 13]"] ;
48 -> 49 ;
50 [label="gini = 0.4688\nsamples = 8\nvalue = [3, 5]"] ;
48 -> 50 ;
51 [label="image_ratio <= 0.0517\ngini = 0.1975\nsamples = 27\nvalue = [3, 24]"] ;
47 -> 51 ;
52 [label="gini = 0.0\nsamples = 11\nvalue = [0, 11]"] ;
51 -> 52 ;
53 [label="gini = 0.3047\nsamples = 16\nvalue = [3, 13]"] ;
51 -> 53 ;
54 [label="gini = 0.4444\nsamples = 6\nvalue = [4, 2]"] ;
46 -> 54 ;
}